digraph Tree {
node [shape=box, style="filled", color="black"] ;
0 [label="tissue_prospective_collection_indicator <= 1.143\ngini = 0.685\nsamples = 1148\nvalue = [203, 539, 176, 230]\nclass = GBM", fillcolor="#c1f6bc"] ;
1 [label="month_of_dcc_upload <= 7.5\ngini = 0.673\nsamples = 619\nvalue = [203, 10, 176, 230]\nclass = SARC", fillcolor="#fcf2fd"] ;
0 -> 1 [labeldistance=2.5, labelangle=45, headlabel="True"] ;
2 [label="gini = 0.0\nsamples = 230\nvalue = [0, 0, 0, 230]\nclass = SARC", fillcolor="#d739e5"] ;
1 -> 2 ;
3 [label="lost_follow_up <= 0.555\ngini = 0.522\nsamples = 389\nvalue = [203, 10, 176, 0]\nclass = ESCA", fillcolor="#fcefe6"] ;
1 -> 3 ;
4 [label="gini = 0.0\nsamples = 168\nvalue = [0, 0, 168, 0]\nclass = PAAD", fillcolor="#399de5"] ;
3 -> 4 ;
5 [label="person_neoplasm_cancer_status <= 0.658\ngini = 0.153\nsamples = 221\nvalue = [203, 10, 8, 0]\nclass = ESCA", fillcolor="#e78c4a"] ;
3 -> 5 ;
6 [label="ethnicity.demographic <= 1.5\ngini = 0.494\nsamples = 18\nvalue = [0, 10, 8, 0]\nclass = GBM", fillcolor="#dafad7"] ;
5 -> 6 ;
7 [label="gini = 0.0\nsamples = 8\nvalue = [0, 0, 8, 0]\nclass = PAAD", fillcolor="#399de5"] ;
6 -> 7 ;
8 [label="gini = 0.0\nsamples = 10\nvalue = [0, 10, 0, 0]\nclass = GBM", fillcolor="#47e539"] ;
6 -> 8 ;
9 [label="gini = 0.0\nsamples = 203\nvalue = [203, 0, 0, 0]\nclass = ESCA", fillcolor="#e58139"] ;
5 -> 9 ;
10 [label="gini = 0.0\nsamples = 529\nvalue = [0, 529, 0, 0]\nclass = GBM", fillcolor="#47e539"] ;
0 -> 10 [labeldistance=2.5, labelangle=-45, headlabel="False"] ;
}